{
  "type": "NeuralNetwork",
  "sizes": [9, 27, 18, 18, 1],
  "layers": [
    { "weights": [], "biases": [] },
    {
      "weights": [
        [
          -7.211425304412842, -0.3340184688568115, -15.317002296447754,
          4.82742977142334, 1.0302361249923706, 7.300716400146484,
          11.725899696350098, -14.53272533416748, 6.2126851081848145
        ],
        [
          1.7657891511917114, 2.4145734310150146, 5.349547386169434,
          -12.981573104858398, 1.5108505487442017, 5.635880947113037,
          -1.3560824394226074, -5.669861316680908, 0.8845868110656738
        ],
        [
          0.7664370536804199, -12.056175231933594, 5.026873588562012,
          4.914159774780273, -0.8915780186653137, 6.971273899078369,
          1.6995928287506104, -14.988639831542969, 0.6973026990890503
        ],
        [
          -3.788010835647583, 4.920126438140869, 1.5583118200302124,
          -1.5632569789886475, 2.3978161811828613, -6.648874282836914,
          5.72547721862793, -3.2789673805236816, -5.017066955566406
        ],
        [
          -3.848494291305542, 6.567807197570801, 1.6082993745803833,
          4.1698222160339355, 1.4284194707870483, -3.669668674468994,
          -1.9770143032073975, 0.08167500048875809, -5.81402063369751
        ],
        [
          1.6343603134155273, -1.2743113040924072, -6.603217601776123,
          0.1065131425857544, 13.292388916015625, -0.9997623562812805,
          -1.562164545059204, 0.4595642685890198, 6.052962303161621
        ],
        [
          7.682028770446777, -16.476503372192383, -0.5515010952949524,
          3.8545162677764893, -1.750078558921814, -0.4283048212528229,
          6.073375701904297, 0.1634921133518219, -8.032669067382812
        ],
        [
          -2.5822463035583496, -8.672210693359375, -0.48616522550582886,
          -0.2459280639886856, 5.883118152618408, 8.332313537597656,
          1.6406638622283936, -12.581489562988281, 1.4872440099716187
        ],
        [
          5.2486467361450195, 3.5928120613098145, 3.413933277130127,
          -8.03333568572998, 9.537615776062012, -7.959244728088379,
          7.229184627532959, -4.0264201164245605, -7.475801944732666
        ],
        [
          2.289769411087036, -3.0558719635009766, -1.6191489696502686,
          6.113885879516602, -13.954583168029785, 2.514563798904419,
          -2.323986530303955, -4.5946736335754395, 4.698375225067139
        ],
        [
          5.250769138336182, -6.681678771972656, -8.475754737854004,
          1.8620833158493042, 3.1842403411865234, -5.073684215545654,
          6.7412495613098145, 10.417763710021973, -3.4429616928100586
        ],
        [
          1.1212787628173828, 1.6687135696411133, -6.418398380279541,
          -7.054805278778076, -0.8536500334739685, -0.01387532614171505,
          2.886939287185669, -2.174072504043579, 0.6583038568496704
        ],
        [
          5.842996597290039, -6.425906181335449, 0.5168435573577881,
          -3.117044448852539, 0.04415544122457504, -6.913424968719482,
          1.829889178276062, 6.950593948364258, 2.4457507133483887
        ],
        [
          9.653029441833496, 8.350260734558105, 0.9441795945167542,
          5.668375015258789, 2.8982834815979004, -13.492545127868652,
          6.203461170196533, -8.359393119812012, -5.565502166748047
        ],
        [
          0.25322556495666504, 3.6967849731445312, 2.2350409030914307,
          -0.510391116142273, 2.4323458671569824, -4.055108547210693,
          -1.6973743438720703, -1.617365837097168, -2.6934945583343506
        ],
        [
          3.2174832820892334, -0.48226532340049744, -1.2864596843719482,
          0.4643348753452301, 4.450303554534912, 6.6747517585754395,
          11.85348129272461, -5.625965595245361, 3.0726311206817627
        ],
        [
          -0.186102494597435, 8.064022064208984, 4.6780571937561035,
          -0.7551936507225037, -6.003800868988037, -1.7803956270217896,
          -3.698378801345825, -0.21125416457653046, -7.8506855964660645
        ],
        [
          6.374456882476807, -0.10482500493526459, -4.324833393096924,
          8.364970207214355, -0.3279134929180145, 0.011669587343931198,
          -6.51204776763916, -9.4479398727417, 0.43905511498451233
        ],
        [
          2.2756123542785645, 3.7967605590820312, 8.755385398864746,
          -2.433638095855713, -2.384678840637207, -0.776205837726593,
          2.075139045715332, -11.697601318359375, 2.4488461017608643
        ],
        [
          -2.4817028045654297, 6.924976348876953, 2.4555606842041016,
          -2.9332022666931152, -0.6793211698532104, 0.6298344135284424,
          1.263472080230713, -5.347640037536621, 0.3900466859340668
        ],
        [
          3.4247870445251465, 5.3712077140808105, -1.5784595012664795,
          -0.47116225957870483, -3.996412515640259, -4.889937400817871,
          3.8448760509490967, 3.395963430404663, -8.302876472473145
        ],
        [
          -12.156808853149414, 0.37545451521873474, -3.6645302772521973,
          -2.4097373485565186, -0.816866934299469, -3.1040139198303223,
          -3.385035276412964, -1.6536937952041626, 15.29496955871582
        ],
        [
          -3.5571529865264893, -1.352453589439392, 1.262593150138855,
          -0.1409449428319931, -1.7259056568145752, -2.181412696838379,
          1.2237317562103271, 0.9221502542495728, 1.2560306787490845
        ],
        [
          8.4300537109375, 2.4515321254730225, 0.1082867980003357,
          0.7675595879554749, -9.900154113769531, -0.3544752597808838,
          0.82664555311203, -0.990962564945221, 0.5843302011489868
        ],
        [
          -8.005849838256836, -4.672977924346924, -6.633310794830322,
          5.941240310668945, -3.5581517219543457, 4.1070966720581055,
          13.1585054397583, -1.725886344909668, -6.216829776763916
        ],
        [
          12.391866683959961, -5.441905975341797, -6.934680461883545,
          2.988316535949707, -4.3482441902160645, -0.3502347469329834,
          7.772221565246582, -6.413108825683594, 4.4169816970825195
        ],
        [
          3.87043833732605, -4.13277006149292, 0.7428202033042908,
          -3.208606481552124, -1.8009397983551025, 3.8706252574920654,
          -7.238839149475098, -7.009961128234863, 3.906045436859131
        ]
      ],
      "biases": [
        -4.218289852142334, -2.745013475418091, 1.7990862131118774,
        1.5912138223648071, 0.7882225513458252, -4.937069892883301,
        -0.4913690984249115, -4.20735502243042, -0.9099027514457703,
        -3.224921703338623, -6.216947078704834, 0.38516393303871155,
        -5.2786054611206055, 4.458315849304199, 1.5544745922088623,
        -8.295079231262207, -0.13720865547657013, 3.2083399295806885,
        -2.5067288875579834, 0.8555664420127869, -2.1733102798461914,
        -9.438268661499023, -0.15063807368278503, -1.435478687286377,
        -7.0281500816345215, -3.787914514541626, -1.146390676498413
      ]
    },
    {
      "weights": [
        [
          -0.6963666677474976, -1.8557795286178589, 0.23156492412090302,
          -0.31749439239501953, 0.2968124747276306, -0.7984077334403992,
          -2.0638935565948486, -0.5769543051719666, -0.29175707697868347,
          -2.049743413925171, -0.36493730545043945, -0.3254100978374481,
          -1.042632818222046, -0.6223866939544678, 0.08667019009590149,
          -0.9041649699211121, -0.021312549710273743, 0.25646063685417175,
          0.6488559246063232, -0.1832878291606903, -0.16552908718585968,
          -1.1038997173309326, -0.12085811048746109, -1.0795477628707886,
          -0.6332269310951233, -1.1755670309066772, 0.08390159904956818
        ],
        [
          -0.5572706460952759, 2.3348920345306396, -3.5342814922332764,
          0.6759891510009766, 2.7592148780822754, -7.166312217712402,
          1.0317962169647217, -2.234736680984497, 6.745675086975098,
          -4.964381217956543, -7.29526424407959, 1.6271231174468994,
          -8.581958770751953, 5.228959083557129, -0.490069180727005,
          4.876723289489746, -3.026893138885498, 0.6541807651519775,
          2.152522563934326, 4.6589741706848145, -5.360230445861816,
          0.697697639465332, 0.6698435544967651, -3.899562120437622,
          0.4932892322540283, -7.739709377288818, -0.4880797863006592
        ],
        [
          -0.4972861409187317, 0.3224549889564514, -1.8607741594314575,
          0.3903657793998718, -1.0187933444976807, -0.844508171081543,
          -1.620915412902832, 0.3855491280555725, 6.349358558654785,
          -3.9547905921936035, -1.4298732280731201, 1.0976468324661255,
          -5.413618087768555, -3.01017165184021, -1.5492265224456787,
          0.9762855768203735, -2.9372825622558594, 4.34961462020874,
          5.361227512359619, -1.795971393585205, -4.217705726623535,
          -4.262042999267578, -1.6516778469085693, 0.06756214052438736,
          -0.4445129632949829, -5.054663181304932, 0.6171246767044067
        ],
        [
          4.990633010864258, 4.885380744934082, -0.2823333144187927,
          -1.9917359352111816, 3.3346471786499023, -9.032691955566406,
          -3.527927875518799, -5.053560733795166, 1.7504075765609741,
          1.474482774734497, 5.864636421203613, -2.868387460708618,
          -4.505355358123779, 7.123204231262207, 2.679102659225464,
          -3.6781868934631348, -8.34878921508789, 2.5989301204681396,
          -6.348389148712158, 3.194617509841919, -5.18516731262207,
          -6.697065830230713, -1.5422676801681519, -0.8109365701675415,
          7.0752105712890625, -3.740988254547119, -1.1146289110183716
        ],
        [
          -2.6927266120910645, -1.5143797397613525, -2.4013137817382812,
          1.239688754081726, 1.5161644220352173, -2.905763864517212,
          -1.5487053394317627, 3.2874913215637207, -3.329768180847168,
          -4.760769844055176, -2.315500497817993, 2.5736093521118164,
          -2.866640329360962, 0.35484880208969116, -0.11472787708044052,
          -3.4916880130767822, -0.8833388090133667, -0.9092392325401306,
          6.961460590362549, 0.36168408393859863, -2.556544780731201,
          -1.1008682250976562, -0.6120671629905701, -0.8249267339706421,
          4.110280513763428, 2.814500570297241, -1.4588638544082642
        ],
        [
          0.19799791276454926, -7.00443172454834, 0.683605432510376,
          1.1130940914154053, -0.9024420976638794, 4.479458808898926,
          3.0280842781066895, 0.29500919580459595, -2.4397287368774414,
          -3.3969411849975586, -0.5771209001541138, 0.13354842364788055,
          -3.095075845718384, -11.84837818145752, -3.111642837524414,
          -3.088923692703247, 1.4190313816070557, 1.7132920026779175,
          0.5597591400146484, 0.003214782802388072, 0.07954622805118561,
          0.748253583908081, 1.6802294254302979, 7.377744674682617,
          0.4625798463821411, -1.9324390888214111, -1.8776583671569824
        ],
        [
          0.06921029090881348, -2.3962159156799316, 2.8745980262756348,
          0.3013013005256653, -1.023950219154358, -2.6920065879821777,
          -4.2059645652771, -1.3059982061386108, -1.779875636100769,
          -3.753640651702881, -0.648646354675293, -0.4914247691631317,
          0.8942587971687317, -1.5239169597625732, 0.4533100128173828,
          -3.270739793777466, -0.5729514956474304, -0.6543517112731934,
          -1.1655149459838867, 0.3892618417739868, 1.8065541982650757,
          -1.7625703811645508, 0.9787788391113281, -0.08952402323484421,
          0.8719866871833801, -1.3563477993011475, 1.1623510122299194
        ],
        [
          3.3233211040496826, -2.0904414653778076, 1.9041985273361206,
          -3.4141554832458496, -1.8773335218429565, 1.6621164083480835,
          -3.7404282093048096, -3.6805408000946045, 3.774839162826538,
          -2.600250720977783, -3.9162960052490234, -1.7993013858795166,
          -2.3993685245513916, 5.102273464202881, 2.3062355518341064,
          -2.826181411743164, -0.6274972558021545, -0.3454379439353943,
          -4.135142803192139, -3.005051374435425, 0.530471920967102,
          -5.296281814575195, -1.0649610757827759, -3.003998041152954,
          -0.5431519150733948, 10.315690994262695, -2.100148916244507
        ],
        [
          0.2934619188308716, -1.871596097946167, 0.33242279291152954,
          -0.8472285866737366, -0.17131559550762177, -1.2307915687561035,
          -2.1754534244537354, -0.22923825681209564, 0.3420372009277344,
          -2.592599868774414, -1.2365097999572754, -0.809654176235199,
          -1.0096787214279175, -0.4391058087348938, -0.31342747807502747,
          0.8288776874542236, -1.5937631130218506, 0.5501170754432678,
          0.31348198652267456, -0.8832486271858215, -0.7974411845207214,
          -1.5584149360656738, -0.3624184727668762, -1.7170119285583496,
          0.15170888602733612, -2.224867582321167, 0.11325957626104355
        ],
        [
          2.8012330532073975, -2.493044137954712, 6.616153717041016,
          -1.3348363637924194, -0.9362188577651978, -4.913688659667969,
          2.096522569656372, -2.1167359352111816, -0.7900903224945068,
          -1.207064151763916, 3.7301557064056396, 4.050075531005859,
          5.3185505867004395, -1.4728015661239624, -2.7361841201782227,
          5.308584690093994, -0.9992687106132507, 5.316963195800781,
          2.366164207458496, -2.471001386642456, -4.029266357421875,
          -5.266397953033447, 1.0600069761276245, -4.299893856048584,
          -9.478473663330078, -1.1531329154968262, 2.769883632659912
        ],
        [
          6.798102378845215, -5.726439952850342, -0.018252817913889885,
          -3.100996732711792, 1.929653525352478, -3.271662473678589,
          -6.015251636505127, -3.963728904724121, -0.24776555597782135,
          0.20887283980846405, -12.05740737915039, -1.9596980810165405,
          -3.0278215408325195, 4.568912029266357, 0.5169270634651184,
          2.230234384536743, -5.136612415313721, -3.8585968017578125,
          -3.8781845569610596, 1.6103202104568481, -1.596763253211975,
          -5.880152702331543, 1.9814770221710205, -5.394082069396973,
          2.041057825088501, -4.298490524291992, -1.1476268768310547
        ],
        [
          -3.8608717918395996, 2.4556989669799805, -1.5739657878875732,
          0.13630780577659607, -2.597522735595703, -3.3100154399871826,
          -4.934077739715576, 0.5210584998130798, 0.6700493097305298,
          -3.9269559383392334, 0.33140555024147034, -0.9442299604415894,
          2.7076804637908936, -2.693275213241577, -1.6926621198654175,
          1.5233654975891113, -2.140892505645752, 1.3687412738800049,
          -1.2057876586914062, -0.04552482068538666, -0.7385578751564026,
          -3.7507572174072266, 0.40853309631347656, -0.8570032119750977,
          -1.508629322052002, -3.88515043258667, 3.180934190750122
        ],
        [
          0.81971275806427, -0.9619520306587219, -1.2821978330612183,
          -4.1957316398620605, 3.9307048320770264, 0.9875983595848083,
          -2.034343719482422, 0.8276228904724121, -2.56187105178833,
          -1.7834757566452026, -2.5573089122772217, 0.4849541485309601,
          -2.9090592861175537, -0.25513505935668945, 1.2031679153442383,
          1.4278210401535034, -3.005624532699585, 0.5019445419311523,
          -3.4346213340759277, -1.9820997714996338, 0.0050279549323022366,
          2.030061721801758, 0.20676662027835846, -2.8564114570617676,
          0.5022223591804504, -2.757833242416382, -0.3363587558269501
        ],
        [
          -0.42210084199905396, -2.381833553314209, 1.9327871799468994,
          -1.227576494216919, -0.28258055448532104, 1.3782321214675903,
          -2.8978271484375, 0.09545769542455673, -0.22706767916679382,
          -1.6864482164382935, -1.3053069114685059, -1.4135891199111938,
          -2.146120071411133, 1.7705539464950562, 0.35619640350341797,
          -0.9950982928276062, -1.539852499961853, 2.8233020305633545,
          -0.8627848029136658, -2.1878092288970947, -0.48305827379226685,
          -2.076047420501709, -0.3371888995170593, -1.9893827438354492,
          -0.5950706601142883, -0.8175410628318787, -0.6242124438285828
        ],
        [
          10.32300853729248, 5.020894527435303, 9.166138648986816,
          -3.0681443214416504, -3.8874943256378174, -10.536519050598145,
          -9.780352592468262, -1.7892251014709473, 2.128263473510742,
          -3.854405403137207, 4.871854782104492, -3.7376952171325684,
          7.087730884552002, 8.71005630493164, -0.9352255463600159,
          1.1216262578964233, 3.7795753479003906, -3.197788953781128,
          -10.371780395507812, -3.199497699737549, -1.3673417568206787,
          -4.752347946166992, -1.968491792678833, -3.951368808746338,
          -4.224127292633057, -1.974313497543335, 7.212318420410156
        ],
        [
          4.0383687019348145, -1.6761095523834229, -0.1755160540342331,
          0.4558556377887726, -2.685999631881714, -1.3882174491882324,
          3.4229743480682373, -8.6176118850708, -4.6709184646606445,
          -3.394047737121582, 2.260126829147339, -0.9314916729927063,
          4.493065357208252, 7.071131229400635, -2.0739223957061768,
          6.75077486038208, -0.22009801864624023, 4.413068771362305,
          -5.632138252258301, -1.263333797454834, 2.4673078060150146,
          -6.3011860847473145, 0.27223268151283264, -0.4341657757759094,
          -13.708870887756348, -2.0528459548950195, 1.7014782428741455
        ],
        [
          -2.467848300933838, -1.4762946367263794, -2.6672844886779785,
          -1.8783059120178223, -1.1346018314361572, -1.8911620378494263,
          0.6410115361213684, 1.4327672719955444, -1.2992794513702393,
          0.4228663742542267, 0.09955601394176483, 0.5804998278617859,
          -1.0292057991027832, 0.4210718870162964, -2.1826834678649902,
          -1.6932216882705688, -1.8436846733093262, 2.8054864406585693,
          0.39517658948898315, -0.24624593555927277, 1.5409798622131348,
          0.2664555013179779, 0.40449342131614685, 2.2957186698913574,
          -0.22716611623764038, -0.3878272771835327, -0.10786065459251404
        ],
        [
          -2.997255802154541, 6.524873733520508, -8.025032997131348,
          -3.7403385639190674, 0.3823821544647217, -2.385322332382202,
          -3.3725624084472656, -4.399097442626953, 9.913433074951172,
          -3.3066954612731934, -1.5025137662887573, 1.2102283239364624,
          -1.1002635955810547, 5.652060031890869, 1.5210813283920288,
          3.3457748889923096, -3.741292953491211, -1.673772931098938,
          -2.254671573638916, -0.30836221575737, -5.457435131072998,
          -2.109642505645752, -1.3089377880096436, 0.365659236907959,
          -1.7571725845336914, -3.7342638969421387, -0.7334523797035217
        ]
      ],
      "biases": [
        -1.3532506227493286, -2.6986446380615234, -4.1741766929626465,
        -5.441462516784668, -3.4856717586517334, 2.3352210521698,
        1.0632902383804321, -4.262057781219482, -1.5642726421356201,
        -8.647823333740234, -0.9499750733375549, -1.4417757987976074,
        -0.7005162835121155, -0.9865732789039612, -5.972909927368164,
        -6.074987888336182, 0.20441611111164093, -5.033939361572266
      ]
    },
    {
      "weights": [
        [
          -0.33919358253479004, 0.9680514335632324, -2.401927947998047,
          0.015588000416755676, -2.858255386352539, -0.6462736129760742,
          -2.352250814437866, -2.512705087661743, -0.627378523349762,
          -3.256531000137329, -1.7265949249267578, -1.6722960472106934,
          -2.059453248977661, -1.4443423748016357, -2.587613344192505,
          -2.5494441986083984, -1.0419321060180664, -1.2863203287124634
        ],
        [
          0.017231982201337814, -1.6966207027435303, -3.1763570308685303,
          -2.683164596557617, -1.4570688009262085, -3.3087658882141113,
          2.5548171997070312, -1.3781936168670654, -0.26734378933906555,
          4.13337516784668, -1.702375054359436, -2.815833568572998,
          -2.8727304935455322, -1.303733229637146, -4.394777297973633,
          -2.4886484146118164, -1.45745849609375, 0.030915062874555588
        ],
        [
          -0.5319740772247314, -1.5568993091583252, -1.1021465063095093,
          -1.6599016189575195, -1.5352461338043213, -0.10144586861133575,
          -0.9706063866615295, -1.083845615386963, -0.26000818610191345,
          -2.2004029750823975, -1.103577971458435, -0.9988282322883606,
          1.7393044233322144, -0.23927196860313416, -2.812159538269043,
          -0.6631501317024231, -0.4457229971885681, -1.02334725856781
        ],
        [
          0.06416083127260208, -1.3683940172195435, -2.9091169834136963,
          -2.3359813690185547, -4.258915901184082, -0.5564389228820801,
          -0.4873769283294678, -0.7922505736351013, -0.6913079023361206,
          -4.195150852203369, -5.980905532836914, -0.40089520812034607,
          -2.080976724624634, 0.9054152965545654, -3.0673277378082275,
          -4.6139397621154785, 1.1793986558914185, -0.17338170111179352
        ],
        [
          -0.21421197056770325, -0.7519384026527405, -1.8382965326309204,
          -1.7706818580627441, -2.552980899810791, 0.1889563798904419,
          -1.8452023267745972, -1.0752167701721191, -0.7984261512756348,
          -3.178769588470459, -3.0267672538757324, -1.6706056594848633,
          -2.027008056640625, -0.9362311959266663, -2.1137547492980957,
          -2.9064059257507324, -1.5976426601409912, -1.6779390573501587
        ],
        [
          -0.20113708078861237, -0.9528216123580933, -1.7560200691223145,
          -1.7225761413574219, -2.2735061645507812, -0.415624737739563,
          -1.4823440313339233, -0.5363475680351257, -0.5482813119888306,
          -2.8290929794311523, -2.594294309616089, -1.5184683799743652,
          -1.384742021560669, -0.8025824427604675, -2.53743052482605,
          -2.0611488819122314, -0.5689349174499512, -1.449750304222107
        ],
        [
          -0.3688620328903198, -0.7554692625999451, -1.4388337135314941,
          -1.5572395324707031, -1.9473538398742676, -1.1315131187438965,
          -1.2659289836883545, -0.9314135909080505, -0.5793518424034119,
          -2.9838271141052246, -2.1267213821411133, -1.0997185707092285,
          -0.17602823674678802, -0.8953448534011841, -2.608245372772217,
          -0.974895715713501, -0.2688072621822357, -1.9754787683486938
        ],
        [
          -0.5739445686340332, -2.4728825092315674, -0.9601345658302307,
          -0.045569367706775665, -1.4630918502807617, -3.300384759902954,
          -1.7126023769378662, -1.9487507343292236, -0.12832342088222504,
          -2.1258530616760254, -1.1733158826828003, -0.3691781163215637,
          3.8099446296691895, -2.3753743171691895, 2.8818697929382324,
          0.049426931887865067, -2.0996782779693604, -4.067539691925049
        ],
        [
          -0.4631293714046478, -1.5437567234039307, -1.1075356006622314,
          -1.1666685342788696, -1.6641528606414795, -0.4547848105430603,
          -1.241425633430481, -0.42993444204330444, -0.464711993932724,
          -2.2798092365264893, -1.7832087278366089, -0.9395323395729065,
          1.1421377658843994, -0.3601388931274414, -2.68566632270813,
          -1.1325594186782837, -0.6643126010894775, -1.0979466438293457
        ],
        [
          -0.18160004913806915, -1.04599928855896, -2.3460700511932373,
          -1.9404081106185913, -1.863417625427246, -0.9860267043113708,
          -0.8474665880203247, 0.07253823429346085, -0.590146005153656,
          -1.5033879280090332, -1.9052209854125977, -1.4754822254180908,
          -0.5197792053222656, -0.6109211444854736, -3.174910306930542,
          -0.9055744409561157, -0.37850460410118103, -0.8890183568000793
        ],
        [
          -0.22690793871879578, -1.6942380666732788, -0.9604305028915405,
          -1.3939273357391357, -1.9308948516845703, -1.119674563407898,
          -1.3644752502441406, 0.4140889644622803, -0.24353188276290894,
          -2.6437506675720215, -2.2249703407287598, -0.9239182472229004,
          0.4894516170024872, -0.29415443539619446, -2.8239994049072266,
          -1.0810474157333374, -0.3063114583492279, -1.0816184282302856
        ],
        [
          -0.4033040702342987, -1.2018520832061768, -1.9184144735336304,
          -2.711601495742798, -1.2748421430587769, -2.55875301361084,
          -0.4518319070339203, -1.796823263168335, -0.30480045080184937,
          0.42299744486808777, -0.85353022813797, -1.8077706098556519,
          1.0834802389144897, -1.6193888187408447, -3.8347115516662598,
          2.1087419986724854, -0.42839086055755615, -1.6211568117141724
        ],
        [
          -0.8500862717628479, -4.041173458099365, -1.4347014427185059,
          -5.392856121063232, -1.6234610080718994, 0.9800164103507996,
          -2.300084352493286, -2.2925779819488525, 0.11732643842697144,
          -8.603411674499512, 1.5598257780075073, -2.89853835105896,
          -1.0958874225616455, -1.907488465309143, -0.42737334966659546,
          7.039392471313477, -1.1368505954742432, -0.4122611880302429
        ],
        [
          -0.41891419887542725, 0.0813000351190567, -1.6905643939971924,
          -1.6954760551452637, -2.0329809188842773, -0.7182183265686035,
          -1.5462154150009155, -1.6761282682418823, -0.5989012122154236,
          -3.1926040649414062, -1.9987043142318726, -1.6048531532287598,
          -0.8493095636367798, -0.6440859436988831, -2.298743724822998,
          -1.4191948175430298, -0.2882368564605713, -2.256450891494751
        ],
        [
          -0.4288400709629059, -1.4663037061691284, -1.000078558921814,
          -1.3325614929199219, -1.6719775199890137, -0.47691643238067627,
          -1.2241727113723755, -0.7080145478248596, -0.2858860492706299,
          -2.493417739868164, -1.706959843635559, -0.7580905556678772,
          0.8742698431015015, -0.4035072922706604, -2.4192776679992676,
          -1.1146275997161865, -0.5687777400016785, -1.5202690362930298
        ],
        [
          -0.35376858711242676, -1.4248251914978027, -1.269813895225525,
          -1.550278902053833, -1.9007841348648071, -0.9538450837135315,
          -1.3630776405334473, 0.04206507280468941, -0.44465702772140503,
          -2.584484577178955, -2.306511163711548, -1.0085173845291138,
          -0.13672956824302673, -0.36066171526908875, -2.764458417892456,
          -1.31997549533844, -0.48771852254867554, -1.258164405822754
        ],
        [
          -0.2353930026292801, -1.3131942749023438, -1.6445480585098267,
          -1.5401902198791504, -1.8446505069732666, -1.0309247970581055,
          -1.1186504364013672, 0.15641705691814423, -0.4166029393672943,
          -2.3609540462493896, -2.094230890274048, -1.1741998195648193,
          0.14052821695804596, -0.6609167456626892, -3.034109354019165,
          -0.8412063717842102, -0.11315322667360306, -0.8697109818458557
        ],
        [
          -0.23217812180519104, -1.3520100116729736, -1.2661529779434204,
          -1.454158902168274, -1.8056069612503052, -0.98054438829422,
          -1.3621418476104736, -0.1301473081111908, -0.3958721458911896,
          -2.516939163208008, -2.195573329925537, -1.0828810930252075,
          -0.1858922392129898, -0.8120589852333069, -2.7556567192077637,
          -1.2394009828567505, -0.5762543678283691, -1.2980200052261353
        ]
      ],
      "biases": [
        -0.04833251237869263, -0.7141882181167603, -2.7338688373565674,
        2.4864237308502197, -0.3264743387699127, -0.5868606567382812,
        -1.1268093585968018, -3.412254810333252, -2.0807676315307617,
        -0.908403754234314, -1.2432101964950562, -2.0816376209259033,
        -2.43603777885437, -0.9650012254714966, -1.943600058555603,
        -1.0543110370635986, -1.2619761228561401, -1.0758920907974243
      ]
    },
    {
      "weights": [
        [
          -2.152047634124756, -3.359447956085205, -1.4818837642669678,
          -1.840829610824585, -2.712268590927124, -2.253592014312744,
          -1.7990585565567017, -4.044372081756592, -1.5848071575164795,
          -1.6694884300231934, -1.791893482208252, -1.8489508628845215,
          -1.8820253610610962, -2.018190860748291, -1.5514503717422485,
          -1.878122329711914, -1.7962472438812256, -1.9093446731567383
        ]
      ],
      "biases": [2.866619348526001]
    }
  ],
  "inputLookup": {
    "block0": 0,
    "block1": 1,
    "block2": 2,
    "block3": 3,
    "block4": 4,
    "block5": 5,
    "block6": 6,
    "block7": 7,
    "block8": 8
  },
  "inputLookupLength": 9,
  "outputLookup": { "move": 0 },
  "outputLookupLength": 1,
  "options": {
    "inputSize": 0,
    "outputSize": 0,
    "binaryThresh": 0.5,
    "hiddenLayers": [27, 18, 18],
    "iterations": 6000
  },
  "trainOpts": {
    "activation": "sigmoid",
    "iterations": 6000,
    "errorThresh": 0.005,
    "log": true,
    "logPeriod": 10,
    "leakyReluAlpha": 0.01,
    "learningRate": 0.3,
    "momentum": 0.1,
    "callbackPeriod": 10,
    "timeout": "Infinity",
    "beta1": 0.9,
    "beta2": 0.999,
    "epsilon": 1e-8
  }
}
